,accountants,accounting,acquire,acquired,acquirers,acquiring,acquisition,acquisitions,activist,advertise,advertised,advertising,affiliates,afford,affordably,afforded,affording,alternative,alternatives,analysis,analyst,analysts,analytics,anticorruption,antitrust,appeal,appealing,assur,assurance,assurances,assure,assured,attorney,attorneys,audience,audit,audited,auditing,auditor,auditors,audits,authorities,authority,bank,banking,bankruptcy,banks,barriers,behavior,behaviors,bilateral,bond,bonds,borrow,borrowed,borrowers,borrowing,borrowings,boycott,brand,branded,brands,bribery,bribing,budget,budgeting,budgets,business,businesses,buy,buyer,buyers,buying,bylaws,calamities,capacities,capacity,carbon,career,cash,cashless,climate,climates,coal,collaborate,commercial,commercialization,comparable,comparables,competes,competing,competition,competitive,competitiveness,competitor,competitors,compliance,compliant,conflict,conflicts,consolidate,consolidated,consolidating,consolidation,consolidations,consumer,consumers,contaminants,contaminate,contaminated,contamination,cooperated,cooperation,corrupt,corruption,credit,creditor,creditors,creditworthiness,creditworthy,crime,criminal,customer,customers,cyber,cyberattack,cyberattacks,cybersecurity,data,databases,debt,debts,deconsolidate,deconsolidated,deconsolidation,default,defendant,deflation,deforestation,demand,demands,demographic,demographics,deplete,depleting,deregulation,design,designed,designing,digital,dioxide,discrimination,discriminatory,dispute,disputes,distributor,distributors,diversification,diversified,diversifying,diversity,dividend,dividends,downgrade,downgraded,drought,droughts,earnings,earthquake,earthquakes,ebitda,ecommerce,ects,elasticity,emission,emissions,employee,employees,energy,environment,environmental,environmentally,epa,epidemic,epidemics,equitable,equity,ethical,ethics,expand,expanded,expanding,expansion,expansions,expenditure,expenditures,expense,expenses,expensive,fda,fdca,finance,financed,financial,financially,financing,financings,fiscal,flood,flooding,floods,fraud,fraudulent,fraudulently,ftc,funding,funds,governance,green,greenhouse,growth,h1n1,hacker,hackers,hacktivist,hacktivists,hedge,hedged,hedges,hedging,hurricanes,impose,imposed,imposes,imposing,inflation,inflationary,influenza,innovation,innovations,innovative,inorganic,insolvency,insolvent,insurance,insure,insured,interest,invest,invested,investing,investment,investments,investor,investors,invests,job,jobs,justice,knowledge,labor,laborers,labour,lawsuit,lawsuits,legal,legally,legislation,legislative,legislatures,lender,lenders,lending,leverage,leveraged,leveraging,liabilities,liability,liable,liquid,liquidation,liquidity,litigation,loan,loans,merge,merger,mergers,morale,noncompliance,organic,outbreak,outbreaks,outsource,outsourced,ozone,pandemic,pandemics,partner,partners,partnerships,patent,patents,people,personnel,phishing,plea,plead,pollutants,pollution,postemployment,postretirement,privacy,profit,profitability,profitable,profits,promote,promoting,promotional,protest,protests,purpose,purposeful,purposes,ransomware,recession,recessionary,recessions,refinance,refinanced,refinancing,regulate,regulated,regulating,regulation,regulations,regulators,regulatory,renewable,reputation,reputational,restructure,restructured,restructuring,retired,retirement,revenue,revenues,ruling,rulings,salaries,sales,sanction,sanctions,sars,sell,seller,sellers,selling,settle,settled,settlement,settlements,shareholder,shareholders,shareholdings,shares,slavery,solvency,spinoff,staff,staffing,stock,stockholder,stockholders,sue,sued,supplier,suppliers,sustainability,sustainable,sustainably,synergies,takeover,tariff,tariffs,tax,taxable,taxation,taxed,taxes,technological,technologies,technology,terrorism,terrorist,tornado,tornadoes,toxic,toxins,trademark,trademarks,tribunal,tsunami,tsunamis,unemployment,unhedged,varieties,variety,violation,violations,virus,viruses,wage,wages,warming,wholesale,wholesalers,worker,workers,workforce
0,0.012310204279938786,-0.0222545368683279,0.0062565264573343216,-0.005333723551791847,0.009692170490314372,0.03704993496054399,-0.008000097802621954,-0.01994186714148532,-0.008052648903366691,-0.005177254743443106,-0.014330692021300637,-0.0343739329763802,0.1030860272672452,0.1407616033613164,0.03326963698487278,0.12986938637843637,0.006273048050145079,-0.004989288398733784,0.024762982770424168,-0.03264976850258685,0.03326963698487278,0.017772818248029374,-0.012754998783914187,0.006273048050145079,-0.005514737962956727,-0.01910271328223843,0.03326963698487278,-0.005802785842107993,-0.0004267671011976407,0.0821973286047857,0.05945393573963947,-0.014365884164750242,-0.008328571084223598,-0.011059827849789377,-0.011815977814800024,0.07678127240211202,-0.0028579078248237026,0.00995590540903993,0.13251298806800793,0.00995590540903993,-0.00302331281781149,0.055303336184834656,0.06462154082212754,0.09997345552169223,0.03229943624578559,-0.00835700751417892,0.04315536875604174,-0.013520449083971308,-0.00839600820865968,-0.008960520802715307,0.0055487624230085,0.004288743584929135,-0.021173895838549266,0.013285208876781902,0.027349224196529714,0.008453827067732787,0.006508624386148105,-0.01601421298288366,0.006273048050145079,-0.0068487667766532695,0.0033250478303523366,-0.01996576008645164,0.021962999044037385,0.1357360405400728,0.016513270830004555,-0.0038586239738618603,0.03326963698487278,0.03796959084166088,-0.015972355830243347,0.029899943379272067,0.005958582295826658,-0.03172077456998152,-0.016792831669301664,0.020787375862953053,0.13251298806800793,0.01902112223111152,0.0148787307119612,0.010461599203745661,-0.019077588613890136,-0.018391281129601124,0.0055487624230085,-0.006121312811674293,0.03931023845096978,-0.01822976307844966,0.0055487624230085,-0.01746521034983097,0.13921379885765015,0.025591082495599084,-0.011815977814800024,-0.022851746374723945,-0.005062627266871111,-0.03650366049564381,-0.04423879471260073,-0.014703286278946457,-0.01649388013407762,0.011105921191138455,0.054427129562809984,0.13858397303377856,0.0028017201514575537,0.10606699339884774,-0.0048220079365667145,-0.01453196364608244,0.0007785210109530835,-7.570326913760713e-05,0.003508159076433069,-0.03821092599934407,-0.017906707375387767,-0.011815977814800024,0.03326963698487278,-0.00784869733295835,0.019333825901075484,-0.008328571084223598,-0.011393238686652558,0.03818376670055669,-0.015477733179250844,0.007350189184231368,-0.002411696309362363,0.01023801291742163,0.03326963698487278,0.03326963698487278,-0.0077842800351000776,0.025841238426814187,-0.03225594366655684,-0.017258712147438824,-0.043917301615666586,0.0055487624230085,0.007744534514665217,-0.014904209665627976,-0.036353874443496415,0.009437967210661542,-0.013348160451934677,0.00995590540903993,0.0055487624230085,0.005958582295826656,0.007622833732030566,0.04111322299575527,0.1357360405400728,-0.021064286461559865,-0.00352118835182172,-0.014956519450868457,0.0108258091845535,-0.015001544330146804,-0.013166188335239741,-0.00307763990726122,0.03326963698487278,0.13573604054007185,-0.0064421202053574905,-0.010834570067975849,0.028712212082818947,-0.021760013152786282,0.018461732289458854,0.1357360405400728,-0.006065683113560133,0.018062663021668618,-0.03014429566183357,-0.01059411350032149,0.07491998663438677,-0.002411696309362363,-0.03221641614926582,-0.008650276292751745,0.001964667111319333,0.040527579337931524,0.061600793328289875,0.0035373947126037136,-0.004490755530895421,-0.0033567133922340407,0.003130905974700183,-0.03719858110179657,-0.0011314336371097632,0.024893510516813325,0.021788934946057003,-0.00307763990726122,-0.011986560541240284,-0.02738525743049507,0.0021304846530037828,-0.015180716269948508,0.07698661526521137,0.024576870979289327,-0.05603061660755123,-0.053254423585237146,0.020236014485888132,0.03326963698487278,0.004084873288056526,-0.009074635909298238,0.11888355549628779,0.018887216391456615,-0.005675708141310828,-0.01403191740204144,-0.00352118835182172,0.07284701122311825,0.08115917657425596,-0.010669957164439374,0.0711275569262134,0.1357360405400728,0.04418963243366573,-0.009064054614670324,-0.019761285490252817,0.01145299461477444,0.05240598389940977,0.08466674585986088,-0.00839600820865968,0.004120113302074703,0.03326963698487278,0.02463525713284052,-0.03564395709688918,0.0401563744429208,0.0057818227550672984,0.053105961710086295,-0.0031088448726803216,0.06333603079887055,0.026598008574009048,0.06627645749854526,0.00995590540903993,0.006811837053666419,0.01194599855991874,-0.012291035822855081,0.028448445983102186,0.08072063332019465,-0.00457619755173065,-0.021322950834017102,0.028854207004141996,0.11888355549628779,-0.00307763990726122,-0.02072962686706194,0.0055487624230085,0.006811837053666419,-0.026419772381231523,-0.024984615253770576,-0.021146643412369725,-0.028160730065040825,0.01714606034626795,0.08572912254567976,0.07863239919712588,0.08535685033757322,0.0026586167312283135,0.023337435584832845,-0.007789307848998371,0.012310204279938747,-0.04124929479249773,0.004288743584929135,-0.011815977814800033,-0.00352118835182172,-0.010012108846433608,-0.017202466669731284,0.07190769707429438,0.03326963698487278,0.05459552654176336,-0.024197353466400538,-0.0003811828954247491,-0.0007254853881847409,0.13858397303377856,0.009448703006209985,-0.003540255600158409,-0.010102327268044978,0.12561666817542336,-0.026312299092786238,-0.00307763990726122,0.04626126506554279,-0.01392332337243419,-0.0029910958611917165,-0.010425303700083835,0.11888355549628779,0.11888355549628779,0.027323574740803953,0.018458663821368796,0.02704358010258402,0.07143835294660109,0.011540001731085728,-0.012112256233117355,0.01067754395685875,0.06960250288783684,0.1089881849854526,-0.002411696309362363,0.008511555793944182,-0.004682717413239721,-0.026521715790155678,-0.014737683036540097,0.024846265487922355,0.03350111134898398,-0.011815977814800024,0.09329714840972318,0.011642668491653565,-0.0028930275898100184,0.027983782903183305,-0.005542619108690194,0.008980962951444302,0.016722352022173266,0.022060442696093658,-0.007985512120705394,0.14238742532405896,0.03524747707966624,-0.028313793366164377,0.11888355549628779,0.02495462547447442,-0.02401177553537229,0.03326963698487278,-0.044175718267110864,-0.005474003654465308,-0.010210185841600215,0.008895816249725153,-0.015001544330146804,0.008313316194241482,0.0014399009022536921,-0.019190707681754886,0.05417649070521974,0.006770409831949173,-0.008328571084223598,-0.008328571084223598,0.016069105283561876,0.14077379009251154,-0.008449657761992581,-0.00016639607715692437,0.004716402476341909,-0.02929695851127888,-0.036735981960926575,0.0006578896983041098,-0.025085394322179003,0.03326963698487278,-0.0140384654893909,-0.016552808051416783,0.11888355549628779,0.1357360405400728,0.08848393671157555,-0.00352118835182172,0.013738436729965626,0.008875918569909753,-0.008654163570268774,-0.026312299092786238,-0.01805286273005572,0.046838869353217745,0.007052926538776904,0.037410301054915676,0.002692165922331805,0.020250888881947933,0.07273608915073745,0.009993562042152843,0.027243467085014975,0.0585948371900559,0.024163467953496977,-0.009484195965724982,-0.012343814686425359,0.02540989818734356,0.05282882001896248,-0.026312299092786238,-0.003583099555853146,-0.0068448090796023155,0.0010327552314816802,0.12726154111509344,-0.028326905943251424,0.009955905409039938,-0.015077729124803709,0.11804413878882528,-0.03423244717333026,0.12470507981435305,0.11396162566166301,-0.009435696542338026,0.07201329817156536,0.06960250288783686,-0.03440393097332376,-0.01995884124436017,-0.0012511267454703532,-0.011986560541240284,-0.017555088726777416,-0.00928512601574167,0.02011603113016539,0.12301195330177345,0.03326963698487278,0.10426202609153712,0.03326963698487278,-0.003094503567392728,-0.0024116963093623617,0.11154319759369742,0.02665982061086295,0.025264653162785845,0.005405330502864095,-0.0008533670450430199,0.03326963698487278,0.1357360405400728,-0.020652571500587073,-0.010720345569039138,-0.009526019509973284,0.004751596336029879,0.01902112223111152,-0.015199380644295666,0.02056498394957239,-0.004664760210424277,-0.02788053038602847,0.008790445846318608,0.0015377401324406306,-0.006372513096847355,0.07601745867242303,-0.014758655285079726,-0.02455826384394695,-0.003542029355767828,-0.04078443460334505,-0.042827472008120614,0.030589364857669374,-0.009074635909298231,0.01067754395685875,-0.00504836953248748,0.1357360405400728,0.10253242067154723,0.02202910400806994,0.11888355549628779,0.11888355549628779,0.11888355549628779,-0.034142167505393735,-0.011393238686652558,-0.012617333689280625,0.00709608461495818,0.0904260683277909,0.07818120997390994,0.11888355549628779,-0.007255978655661776,0.029535179242488538,0.11888355549628779,0.13573604054007185,0.013592855185292727,0.012655647048738615,0.016069105283561876,0.12784887408782877,0.009800324624138103
1,0.046004050420019094,-0.049926997829007114,-0.011663428724479757,0.14189100594220402,0.07431712263011703,0.047224369634897734,0.06259307315103896,0.03319507242231706,0.0392845468254667,0.04054147680013461,0.04530394392754826,0.028527831459584152,0.017570393379777612,-0.03678302912227004,0.032704842525626006,-0.018689987619017114,0.08597834098552225,0.08055622359101838,0.10319572847393178,-0.06489671171245824,0.032704842525626,0.011621616045837013,-0.014356660036124227,0.08597834098552225,-0.0022839588247900015,0.040131889983865326,0.032704842525626,0.0067848856044480715,0.025056972650448338,0.04365170969385089,-0.04181862607441199,0.02612987584457917,0.0244662849607668,-0.019007777912781975,0.01964515722179091,0.004779934051319325,0.03621451765047441,0.03585492865137952,-0.049486397742787507,0.03585492865137952,-0.005851783261925496,0.044247798397112424,-0.007257543901068754,-0.03212308844434457,0.08243608668378312,-0.007659836256358846,0.0007257657722609546,-0.0061420492297654655,0.03298650684154612,0.0308597297964982,0.06081896094339574,0.09429783862081068,-0.04011186428461513,0.061011822850180475,0.04417270071979908,0.046402745527831406,0.008004357660073699,-0.03267404002408044,0.08597834098552225,0.12036733416022063,0.04133962418537123,0.11692476295084435,0.006359694654850888,-0.0493413556185377,0.10514491132181128,0.060567251327303395,0.032704842525626,0.10031096421458195,0.10430130767214638,0.06572537453775215,0.02917072777423782,0.03155642449793715,0.09958906476835754,0.06817167402656918,-0.049486397742787507,0.09308538619348486,-0.043758599759017,0.012567097386439971,-0.02514887503864546,-0.07159219771060615,0.06081896094339574,0.05065264032583197,0.002880308423279047,-0.07013986750625961,0.06081896094339574,-0.06132769121162908,-0.051116117060384325,0.056799743601720284,0.01964515722179091,-0.0682645615215219,-0.012309079007701281,-0.0007729123052504019,0.011911615677139921,-0.015046651113131923,-0.034124566324335005,0.048137357805966965,0.0223859521396308,-0.05119443668909643,-0.04092932653748633,0.03131486859800907,0.0779810512666578,0.08487666830270367,0.07683691224473625,0.018616312610869483,0.038027734409740666,0.010190781077538262,0.1139148433816072,0.01964515722179091,0.032704842525626,0.025958639074349615,0.02818018472192689,0.0244662849607668,-0.03802149389271976,0.09735852226426728,-0.027187929357249452,0.011595465694719972,0.02222758079707753,0.038829041309200917,0.032704842525626,0.032704842525626,-0.03729568994281235,0.05123561584128268,0.05978340176511622,0.0068141861347426405,-0.013287811281333897,0.06081896094339574,0.03143779038312958,0.030987422439332786,-0.022968215280964807,0.02660296004670669,-0.06230966385347235,0.03585492865137952,0.06081896094339574,0.029170727774237834,0.08428210234310683,0.07715771342113234,-0.0493413556185377,-0.021208902342746958,-0.022468993947593545,-0.08508742716631658,0.06652380850862454,-0.049316087634838954,-0.05886206967191411,0.007129754578021952,0.032704842525626,-0.04934135561853729,0.05164247132555125,-0.00842408226946316,0.027662111767021456,0.053322146716860634,0.04503252919893272,-0.0493413556185377,0.050483761704139256,0.02475373984340871,0.004427536346395297,-0.007431795151260558,0.02015907518210227,0.02222758079707753,0.010122755762545118,0.024977570884055934,-0.018771798715115882,0.02590730453515387,0.004125838834934035,0.1058680393532094,0.022755389582943455,0.01809845044734098,0.030897109491375807,-0.06474031534865568,-0.04321439810324594,-0.03836151034267039,0.07640683849742885,0.007129754578021952,-0.036275084772095886,-0.006881526254155862,-0.0042521290343035915,0.009715884713054462,0.038646727618069816,0.060847942716118916,-0.08539312560028745,-0.0145359662685265,0.021212292849254223,0.032704842525626,-0.034694781951126574,0.01746041374836662,-0.0450100779180489,0.06396825420803129,-0.02606316678219031,0.025625673115952798,-0.022468993947593545,0.0018435907041260413,-0.022708752781272715,-0.02100603695185769,-0.04267347945726244,-0.0493413556185377,-0.044378473970690495,0.01764399683425719,-0.057585076845951405,0.05077915333245865,0.05087276988456531,0.014028999509560401,0.03298650684154612,-0.00800152948222122,0.032704842525626,0.09313547017635301,-0.05445011743817606,0.04828395433859009,0.02897610133406525,0.013764758889592553,0.023104372977736314,0.06507236986414452,-0.024888216236418167,0.08232863566980064,0.03585492865137952,0.020539182403249576,0.03082671455613469,0.04280434380589044,0.013953988453601303,-0.0435355593362309,0.00711247378219472,-0.01647346921710462,-0.05216754655632322,-0.0450100779180489,0.007129754578021952,0.012995236426454806,0.06081896094339574,0.020539182403249576,-0.08050239209132297,-0.07077274403995525,-0.06404132720987261,-0.07105196918554715,0.019979561377148396,0.09272764477732755,-0.03250186212240497,0.034914142777149416,0.04653728313292192,0.009461496131594097,0.08348672211429223,0.046004050420019094,0.06143878518636657,0.09429783862081068,0.01964515722179092,-0.022468993947593545,-0.0005424019072281829,-0.023493388203816697,-0.016137475381568563,0.032704842525626,-0.004141763026666656,-0.07439339056706123,-0.030956274731381427,0.04089769273430357,-0.05119443668909643,-0.04206298858164545,-0.07087872920647668,-0.04592975903554562,0.01151755025309377,-0.04516105788485763,0.007129754578021952,-0.010770001335767063,0.00314762340080315,0.027296018584403295,-0.015907083827904074,-0.0450100779180489,-0.0450100779180489,0.04776767909822498,0.05531891146839858,0.06468203002341018,0.01624441632706631,-0.03472948611190256,0.03685627572633024,0.03510660033367738,-0.023418754365234266,0.0009355897546209086,0.02222758079707753,0.0784852936450628,0.05612430691972513,-0.04264024964244012,0.0003825611775920418,0.06904856741672602,0.08433821871664679,0.01964515722179091,-0.018145491748601122,0.04987658513849119,0.07259077874182888,0.0251834142172871,-0.04691760741747193,0.04675274131919612,0.008167222167103206,-0.0345081682867546,0.06885609954754898,-0.03508539043727966,-0.01908634794524072,-0.08476339061205218,-0.0450100779180489,0.03992347997089203,-0.002931702299635396,0.032704842525626,-0.05764471559951635,0.09433120255003435,-0.04723488004566079,0.045888761439175293,-0.049316087634838954,0.11498016314035163,0.09741341084126756,0.024189990336466405,0.09888566382980542,0.09609272744327775,0.0244662849607668,0.0244662849607668,0.05911231789052327,-0.041332751803227215,0.06369401531247866,0.09931444573523475,0.0800478398234342,-0.040881356581091294,-0.020212622366737192,0.024340887735000875,-0.012804573805255409,0.032704842525626,0.0626852498522403,0.044103314622223944,-0.0450100779180489,-0.0493413556185377,-0.00336447219600454,-0.022468993947593545,0.06826394801555094,0.05713576674480719,0.04909986418117587,-0.04516105788485763,-0.02795833978996697,0.07193575951256502,0.01568476442309046,0.0135707683738411,0.009913168904336538,0.009138533524525701,0.07820664815490969,0.06326707985379193,0.002476713557327194,-0.02641332373563607,0.0657506014377516,-0.04587347192463982,0.022709822903033573,0.11206436837439014,0.04244014042953053,-0.04516105788485763,0.0030984087897320284,0.03827967659967997,0.1069041411183982,0.035755084508090555,-0.07587687500639144,0.035854928651379535,-0.02216575403677774,-0.04206814357439618,-0.007026918324260986,0.0013371325382975589,-0.008422780528390711,-0.030443639554641376,0.022331646606521087,-0.02341875436523427,0.013713992512552283,-0.022631436138044605,-0.02488646124523004,-0.036275084772095886,-0.029092244601875747,-0.0033250643476950667,0.046428490019885756,0.005056709396930179,0.032704842525626,0.02671357872370984,0.032704842525626,0.012158784017691559,0.022227580797077536,-0.011279726034523502,-0.048125225935100255,0.04195232353929817,0.045632667602710855,0.05161078096268091,0.032704842525626,-0.0493413556185377,0.008178792935889967,0.07793202627429231,0.00501706683995138,-0.019782088133857956,0.09308538619348486,0.0682362113239067,0.06887913407699195,-0.013084298042280167,-0.0397711580609134,0.023908048858459603,0.01475783415260291,-0.04771957880801113,0.03343438708030148,-0.04276516391115042,-0.06610659347760289,-0.0046346936580108425,0.045243806513676973,-0.07882212055774365,0.05614968558310308,0.01746041374836664,0.03510660033367738,0.025827655457733197,-0.0493413556185377,0.07265029371768748,0.0481085596282568,-0.0450100779180489,-0.0450100779180489,-0.0450100779180489,-0.059114891981744834,-0.03802149389271976,-0.04296010631846932,0.029853675403039275,-0.0046981699977385084,-0.004894651680009761,-0.0450100779180489,0.09426275355582746,0.07877955784953254,-0.0450100779180489,-0.04934135561853728,-0.037781176232682644,0.03436589138383625,0.05911231789052327,-0.034649983111263626,-0.04095440197711527
2,-0.03965488597145783,-0.058274311709118454,-0.10291465136693066,-0.007717583358259783,0.03189439190498272,-0.027993693792914692,0.023140765990076417,0.016278824896632793,0.021994068733693067,-0.019484110899289864,0.007397615262288229,0.0684118370594265,0.045186067192152804,0.012795789814929778,-0.009883128320881382,0.008386796750857944,0.04654389271452633,0.044927381126204,-0.019169362540786435,-0.044715067498088026,-0.009883128320881382,-0.028740243258158226,0.029422718853771276,0.04654389271452633,0.051768821569661165,0.00413013561472449,-0.009883128320881382,0.0005898151528365332,-0.0014467589211749187,-0.01402782336364658,-0.019569822803385567,-0.03182715018994674,0.008899483950708775,0.03954919194211051,0.001321845240497066,0.05822800607418319,-0.016648862282088447,-0.03776602420544739,0.01943082212640121,-0.03776602420544739,0.0068791029232044415,0.05185048746701597,0.018472865689382514,0.009807859727868979,0.047985152886295304,0.0001580567232781823,0.00713834559889181,0.07070413270579377,0.008203146490857058,0.0225394558759112,0.035844223014041304,0.0446298744217991,-0.03369520302938635,-0.06341170028777388,-0.022108820295903,-0.08451973996880145,-0.04556333278846997,-0.055412488737295866,0.04654389271452633,0.017651194470443693,-0.032130866480518966,0.04081379057606915,0.09103696915492386,0.016663890927944264,-0.009055782477125102,0.044145111238337684,-0.009883128320881382,0.07325566470363269,0.07216148857728406,-0.003911322248598687,-0.020628660420613995,0.07873670345996583,0.002584056451713168,-0.09529864366172208,0.01943082212640121,0.03946679846319123,0.1038774533690201,0.05861223526397448,0.04558504420231778,-0.1106784107378439,0.035844223014041304,0.03536752841244273,-0.04133239667190956,0.06659256348745896,0.035844223014041304,-0.039526733901324884,0.018317222512518053,-0.043931053951996965,0.001321845240497066,0.06628964640346681,-0.02996049425287786,0.1104131855255823,0.06516876782131265,0.08963057485586857,0.034735024353439545,-0.01238547019667069,0.09518135260988358,0.01897796061494425,0.06404348520477586,0.0025852487575112205,-0.01733436028123332,-0.044146105423753614,-0.0227787081066083,-0.0007316858819511572,0.04752366153444122,0.06205734407229937,0.038923811982780006,0.001321845240497066,-0.009883128320881382,-0.04093157679057902,0.024183375422424706,0.008899483950708775,0.00322583856136773,0.029634452504967757,0.058853023852056215,0.0394439135507594,0.0011788411605379578,0.022002299250655603,-0.009883128320881382,-0.009883128320881382,0.06458807830585732,0.07901074593263867,0.022272279046757156,0.04164589647093956,0.11400892207659766,0.035844223014041304,-0.03447051080430692,0.03127119754039918,0.08406613726096614,-0.059623159912181714,-0.11914334537030247,-0.03776602420544739,0.035844223014041304,-0.020628660420614002,0.027369972575308547,-0.06509580049080627,0.016663890927944264,0.06710363172286468,0.06514690920589292,0.06439044578494861,-0.0020385845529552566,0.0009968926145484704,0.03830059838811432,-0.022586499887838674,-0.009883128320881382,0.016663890927943983,0.05286029977375106,0.030566945350793698,0.032811672000725475,0.05844357462393339,0.004204628434626646,0.016663890927944264,0.021597240114655577,-0.05467553919063816,0.08476934453377763,0.023594397503811412,0.026465986351887693,0.0011788411605379578,0.042053246640661124,0.031022354011704393,0.06704246346773281,-0.056833690697293965,-0.0879102667516673,0.04098512302799463,0.010023728325644847,0.07496807482432587,-0.07883844664001816,-0.09787326314457455,0.015268001750568118,-0.042297116440335125,-0.05210072361312209,-0.022586499887838674,-0.04695840429326097,0.06969897011081677,-0.01925704000417978,0.07356710040055033,0.06021584623667285,0.013609878332020495,0.06156658251515285,0.09812605742415073,0.08369380030749683,-0.009883128320881382,0.002926420625078696,0.0033677390990161753,0.01890600486975221,-0.08375688089407435,-0.03602661683349367,0.02144448926716211,0.06514690920589292,0.026169938490622793,0.01368869346703468,0.09393297773395029,0.07062359627224328,0.016663890927944264,0.042240074081044,-0.013992751102009758,-0.07971658340482568,-0.05322025287738282,-0.0033011844018444557,-0.03560000268275147,0.008203146490857058,-0.03634265061437656,-0.009883128320881382,0.023391581945530267,0.04627037793700085,-0.0646774491002881,-0.0860334535418939,-0.07206481162851468,0.0015899139681470088,0.02604591281069338,-0.02970569223259366,0.03827010321172489,-0.03776602420544739,-0.041563503949799546,-0.07812812777299974,0.06458651565333988,-0.007584037490700841,0.07695137964605904,-0.040856331017337114,0.09200322812636348,0.09588566965387536,0.01890600486975221,-0.022586499887838674,-0.004024234164287671,0.035844223014041304,-0.041563503949799546,-0.09312572159318794,-0.0869877869433936,-0.06868557829586427,-0.04713432716049497,-0.05146685182787893,-0.059941453030179254,-0.009907879556700062,0.03081011164876269,-0.05129657182040498,0.07218899430217525,0.04728908720819773,-0.03965488597145764,0.05105671375150271,0.0446298744217991,0.0013218452404970633,0.06514690920589292,0.011924286347883197,-0.006842704375659792,-0.00749791132607402,-0.009883128320881382,-0.046185868555976124,-0.10241742513611427,0.008686574643055008,0.1129362045231141,0.01897796061494425,0.0045426924033195905,0.006991958966898111,-0.08371293525552338,-0.029876445496800786,0.01101141116963101,-0.022586499887838674,-0.028487708045935346,0.03520814644078759,-0.01571235830518629,0.06353645340855966,0.01890600486975221,0.01890600486975221,-0.033796632163791286,-0.028197849852274963,0.09548940219867644,-0.04658683551674018,-0.004542387902970303,-5.205309943282811e-05,-0.033399104777918104,0.004023276464902652,-0.044886858618132144,0.0011788411605379578,-0.04850879371888176,-0.01718958814041044,0.005558937911220774,-0.062178590861561994,0.06801843585096005,0.03873868348974313,0.001321845240497066,0.012543115017588962,-0.06390785293772051,0.01073182112778758,-0.04882336675237082,-0.06168909050094941,-0.055864368245065216,0.041298307443981275,-0.036721915703444824,0.045305301960651044,0.013878450641208344,0.06694380704101463,0.09115685665716801,0.01890600486975221,-0.00712369825247201,0.07057892139362126,-0.009883128320881382,0.019958807871615636,0.03226036884252013,0.09542117765532648,0.036843040146338824,0.0009968926145484704,0.01359894525766922,0.020525223528959892,0.050453760963396196,0.012285306695516855,0.02453846764009296,0.008899483950708775,0.008899483950708775,-0.05572185397954231,0.014214438299571818,0.02302489277936163,0.038758871357120854,0.05863971052450645,0.07720324382187307,0.03373086231277035,0.053652393310825344,0.03825045628287182,-0.009883128320881382,0.0499867263462832,-0.03750844279826466,0.01890600486975221,0.016663890927944264,0.008599187651422723,0.06514690920589292,-0.05247997724121991,-0.006140025174141351,0.0472079800206123,0.01101141116963101,0.05997140804536948,-0.08749894468846424,-0.0484788387840616,-0.056292409091006614,-0.032157270252096935,0.09520814674621225,-0.00150526335962093,0.1009214234881657,0.10048946888450895,0.0389288870369343,0.11730191950477742,0.09566575947840174,0.12419788208550439,0.049763886066703934,-0.0740864661630971,0.01101141116963101,0.001985033778282003,0.05899871062459523,0.041914560271848915,0.03147194201394041,0.0527140365182212,-0.03776602420544741,0.008376569007500403,0.012469331597151898,0.01891799660083133,0.04081339745851985,0.05113471465019859,-0.0018761766868559647,0.014077061534514962,0.004023276464902668,0.07193532807640068,0.11596763025557708,-0.012660654651389814,-0.04695840429326097,0.034703586856065886,-0.02882563236912733,0.0052484437428334035,-0.005084320775622691,-0.009883128320881382,-0.02796533383550339,-0.009883128320881382,0.0005793589053367583,0.001178841160537951,0.007371253574501073,0.06461551218350406,-0.09467693287981689,-0.06090966471627274,-0.024185579988972424,-0.009883128320881382,0.016663890927944264,0.11075833518554436,0.05747557513198993,0.04389767607439317,0.029682751430052466,0.03946679846319123,0.02754065001044259,-0.09025907864575736,0.056672324727899966,0.08338297809847615,0.043525449465024936,-0.024757775418319385,0.10828907600069425,0.014473749565688053,0.07202116285769994,0.08659335078822208,-0.03248573066162526,0.08378177208728356,0.10147491378943763,0.027697458525737895,0.0033677390990161614,-0.033399104777918104,-0.0015103710760183686,0.016663890927944264,-0.046694053902250204,-0.011532292648875373,0.01890600486975221,0.01890600486975221,0.01890600486975221,0.04807088712181951,0.00322583856136773,-0.0009188357212721564,0.05888775687638078,-0.008312782326014812,0.014852891921197015,0.01890600486975221,-0.016400834332007265,-0.030414677074690026,0.01890600486975221,0.016663890927943972,0.04980048618860004,-0.0804984674372704,-0.05572185397954231,0.02663059300653297,0.07296849141218999
3,0.018838299510995693,-0.010552285169975917,-0.010865128298267218,0.01349333022855306,0.05002937673682595,0.0013973172537498635,0.04003671584795804,0.02268771316409095,-0.029687025123781362,-0.007372123450441354,-0.021880410521481493,-0.05288427011889588,-0.02989063851787618,-0.004884378502489583,0.12904366056648622,0.04594767747276824,-0.007149825365623693,-0.02980949701737604,0.06026864945558945,-0.005198927009087105,0.12904366056648625,0.13748905451121335,-0.031047916496796894,-0.007149825365623658,0.0017200459982672797,-0.03098245829774078,0.12904366056648625,-0.03256149123875486,-0.019669304515717693,-0.00479750816299632,0.06666435597226941,-0.03623603230741301,-0.018810247925838606,-0.027405404929637958,-0.019544635329698475,0.0682256479531273,-0.03753566623999437,0.02270466206394762,-0.04616776648881003,0.02270466206394762,0.06099914673465248,0.12315547858755083,0.05084188586090734,-0.04580302842031228,-0.04317218348634887,0.006903698790779398,-0.05959154589532831,-0.04220129948985103,-0.021392335633281453,0.0020752866616456714,-0.00530778264561127,-0.010973467054059306,-0.011894583739022885,0.011801756119774033,0.09533382762285858,0.015585658653791487,-0.03141674004249907,-0.003778488966397722,-0.007149825365623658,-0.054924463106486104,-0.02595698148923609,-0.0638058916789874,0.08882208461329694,-0.048335861372444486,0.017352372064346772,-0.025128015809084515,0.12904366056648625,-0.01614364322768429,-0.01604990418084988,-0.04989428011471644,0.008619965594094893,-0.08534139041815475,-0.05126966826154392,0.03822111407757835,-0.04616776648881003,0.044436108971811904,0.09627637704854997,0.02137178126503575,-0.04172504198021182,0.021975690663875308,-0.00530778264561127,-0.031823081589935666,-0.0008067432580002288,0.11070323489403655,-0.00530778264561127,-0.0004867097008732341,-0.04917862933928867,0.07981992454636594,-0.019544635329698475,0.04980081524135677,0.06939128179092874,0.03102917173916681,-0.015156510234789207,0.08547584374313799,0.02780592965363511,0.0701711783826723,0.03497647397634644,-0.04871622570181797,-0.05917056684847888,0.019334189399880384,-0.008548686825483699,-0.026880258640871235,-0.005916498879400343,-0.05067908960105564,0.0017027642964067766,-0.03447917263533567,-0.059697077913265936,-0.019544635329698475,0.12904366056648625,-0.028613130146788887,0.02560212527420828,-0.018810247925838606,0.049399364929423414,-0.012543197842008288,0.007639973853213765,0.04760093754972959,-0.009868086264355667,-0.0512458988504122,0.12904366056648625,0.12904366056648625,0.08870311613561038,0.07081843953855076,-0.04188322671816801,-0.039798270242434666,0.00016371902625660073,-0.00530778264561127,0.011279620108334179,-0.055316922730152186,-0.015781973170310826,0.016871129209945993,-0.02198756339362972,0.02270466206394762,-0.00530778264561127,0.008619965594094902,-0.0016720349800295152,-0.005313747565985503,-0.048335861372444486,-0.05112390627153307,0.06122550766980283,0.04888514660406413,-0.04261641254885816,0.05972380972943632,-0.03891106862612036,-0.013489360037088961,0.12904366056648625,-0.04833586137244418,-0.06119126398733999,-0.015046588389309806,-0.05492226396253131,-0.06293242935385895,-0.03640380988500652,-0.048335861372444486,-0.05125355022365485,-0.014611001442400922,0.012698440264158173,-0.022535270787457522,-0.08819356548741804,-0.009868086264355667,-0.03673594454917564,-0.029572912536326244,0.10724233109037924,0.07621907568339006,0.03044320173707804,-0.010000505097664779,-0.03290893919765011,0.039103436904416054,0.030296224750243416,-0.03496829026028962,-0.037660189157604315,0.03096998274003277,0.06699960125395188,-0.013489360037088961,-0.009043893125013688,-0.06520127249367441,0.06687638755647647,0.07957636350321967,-0.08021157741625025,-0.03359212810646482,0.032105546830275555,-0.012132488022338982,0.07099846317196096,0.12904366056648625,0.0370699516342063,-0.051401182957005215,-0.04094378122567062,0.03458343617720371,-0.0024448342288098416,-0.02055951503127854,0.06122550766980283,0.0030826806301983145,-0.046628156850052976,0.07316195510959471,0.06504645048466548,-0.048335861372444486,0.054312799659386526,0.020888901612508295,-0.014491340790969125,-0.0032154382896717537,0.018089265195099288,-0.005403178323769495,-0.021392335633281453,0.03920275517359431,0.12904366056648625,-0.06794412756653603,-0.036023211671945436,0.0075971675769159405,0.04744730345583625,0.010113523602484197,-0.0281260755006427,0.08430639550936458,0.04361261127196628,0.007190151085607218,0.02270466206394762,0.012407987443204864,0.021657137351116615,-0.051138493134485805,0.058787574979346245,0.09825833734510633,0.006856988478962062,0.07854775883987858,0.00889657167351091,-0.04094378122567062,-0.013489360037088961,-0.0036831786809305832,-0.00530778264561127,0.012407987443204864,-0.011907053985980463,-0.01419629097746265,7.023512519021939e-05,0.02337174179602186,-0.01612055809661651,0.02752358897927691,0.016171395477262124,0.03826473823052148,0.00033978920576652714,-0.01482269627926848,-0.022780506532172763,0.018838299510995728,-0.07117466314093371,-0.010973467054059306,-0.019544635329698478,0.06122550766980283,0.052877557600722394,0.015422930090092714,0.05505174834869163,0.12904366056648625,-0.033964598194418605,-0.018189503623610326,-0.048796348157263594,0.017347539173264398,-0.04871622570181797,0.038676048974742916,-0.0052050137896145175,0.006281229037486612,-0.014772761446395116,-0.00527078301724416,-0.013489360037088961,0.001830913465478732,-0.03322507530700141,0.007409773111286884,0.00639385882334971,-0.04094378122567062,-0.04094378122567062,0.08497169823172496,-0.018553318865060897,0.02132544877036198,0.04709625036154155,0.0024746847255674304,0.04575137848470174,0.016686149461491148,-0.02624439643602272,-0.010864522097093193,-0.009868086264355667,0.007512183811658277,-0.047414980737471225,-0.008299902994502902,0.004800207030606161,0.03711276638433061,-0.03746117196646795,-0.019544635329698475,-0.04114574437173808,0.00030360317708397373,-0.03253917225034074,-0.001161679564985179,-0.02074842632299801,0.010858128322289003,0.056833313443420116,0.05935191242237718,-0.040115482173839,0.00472866158122591,0.020595930141981404,0.06295678897327087,-0.04094378122567062,0.09647054124193112,-0.06474624610152716,0.12904366056648625,-0.010108822184617665,-0.01689335230674313,0.0938493533053086,-0.04389912090575819,0.05972380972943632,-0.008345174981393956,-0.0312906592271151,-0.041748860762712864,-0.04379538655462936,-0.005139833270418382,-0.018810247925838606,-0.018810247925838606,0.029782066043580697,-0.019183583286226727,-0.02281983760607166,-0.01710333364516151,0.016035015343656478,0.06305156821802335,0.007451634684827537,-0.059065121072346974,-0.005297531855315423,0.12904366056648625,-0.03226637781361767,0.003089089826953384,-0.04094378122567062,-0.048335861372444486,-0.015789021233708102,0.06122550766980283,-0.015764913713679114,0.005548169617665901,-0.04806135731061435,-0.00527078301724416,-0.03457058855594927,0.009475099436830389,0.01305395231098087,-0.013512635686085071,0.052060432100234755,0.018246442552733645,-0.004027503198772334,0.02883867268819839,0.09910527138029493,0.0002248480519955534,0.0322592004203574,0.09538805143361888,-0.007176252189778264,0.008803316159683633,0.03448152946294232,-0.00527078301724416,-0.03939679904517398,-0.029396272563531244,-0.01755023005983128,-0.06477433537079888,0.05848406604918745,0.022704662063947625,-0.003448148172791392,-0.042688289823996445,-0.03308779957880884,-0.04668701970110486,0.01841729931060565,0.03346789030247703,-0.05060830616395727,-0.026244396436022728,-0.08996701667713938,0.04209675914031641,0.09931769829703445,-0.009043893125013688,-0.017663476190318737,0.012068556275093616,0.061284126086963465,0.04667048158262807,0.12904366056648625,0.0872738611834365,0.12904366056648625,-0.0245252439737833,-0.009868086264355673,0.057580181634844504,-0.06551401681120907,0.03574856959330889,0.008098116997399369,-0.008259356258172371,0.12904366056648625,-0.048335861372444486,0.027646073362242243,0.024218034625268073,0.03692318272537316,-0.036755021884981524,0.044436108971811904,-0.02137197699438999,0.037865139474049694,0.04015304619416173,0.02290630424926587,0.044936415159634535,0.05893099490626932,0.102431614290305,0.04643717888220052,0.10065483811851123,0.08366764006989202,-0.024781200265828633,-0.05427424412257952,0.051882592179863615,-0.0402589368650417,-0.05140118295700524,0.016686149461491148,-0.03590840489207303,-0.048335861372444486,0.012746441133792225,-0.0036694133721552388,-0.04094378122567062,-0.04094378122567062,-0.04094378122567062,0.016580548197140804,0.049399364929423414,0.052269988999624005,-0.06558101328694305,0.054213106896641945,-0.016267188430395964,-0.04094378122567062,-0.03580505043113392,0.0489928924800308,-0.04094378122567062,-0.0483358613724442,-0.05765649980163225,0.022673459018536502,0.029782066043580697,-0.045101600537784614,0.02207417878189904
4,0.005291783865327804,-0.09096450122481212,-0.044365951060781034,0.0368206825627136,-0.048779099200881526,0.005514516086180976,0.03528135705435824,0.1540744750228948,-0.01067765060784081,0.01630643359486616,0.003994630177955323,0.030221062137708754,-0.03274788594518682,0.0048780038045108855,0.011975254801341116,0.009366218304694897,-0.03558871851913878,-0.03040320410140854,-0.019578484861436436,-0.05519535555390811,0.01197525480134104,0.10839632950184018,0.029317294160558414,-0.035588718519138585,0.015950488032131012,0.06722351381993535,0.01197525480134104,0.0064301614952688435,0.06558159611888,-0.0048017946384198125,0.11975713958092507,0.0409434401106858,-0.0047507461536076025,0.030999046007473212,0.013174059214023658,-0.06222600696355589,0.009902181967757356,0.009299415393871434,0.002521947657961838,0.009299415393871434,0.12628140878111227,-0.06498885097967583,0.09610307913578615,0.0001967961136835894,-0.0291201037957868,-0.006116424369789023,0.004785520431928647,0.10502870840360294,-0.00902861547920231,0.033953988702138505,-0.029130807829072458,-0.031364331527846026,-0.04051432328983051,0.006814538959204475,0.008609477139993573,0.027069699620200144,0.05335752434607897,-0.07785657560792561,-0.035588718519138585,-0.0013704605108944435,0.051290983186541114,0.00627134630050907,-0.09081909275624014,0.0010775801328818712,-0.017300602581318637,-0.023229386676390632,0.01197525480134104,0.0703611501188788,-0.006951732127063601,-0.012027744030560665,0.00047964809360598326,0.027858768721865858,0.01345986252573222,0.007193098517703188,0.002521947657961838,-0.028427760156501926,-0.024288704171185616,-0.03556956380720969,0.041475023963347665,-0.08221019225897785,-0.029130807829072458,0.028540213360207595,-0.0013616113234367413,0.04164016573339277,-0.029130807829072458,-0.08959924346692762,0.0016751986203071617,0.012878166695752914,0.013174059214023658,-0.03263150409555306,0.1278555464945488,-0.0034591774090479144,0.07575848234937702,-0.03787464212944742,-0.030896692477477603,0.11946947010272944,-0.01508345483097772,0.0020132420345553587,0.052562190042952275,-0.004363298656806743,0.03443271731172417,-0.018744250652161294,-0.006302155746594052,0.06136634967351018,-0.04234452359512719,0.05233885423843744,0.03998744959941805,0.013174059214023658,0.01197525480134104,0.04491186343044087,0.02876704084157865,-0.0047507461536076025,0.10592016818883589,-0.03046007059752446,-0.03537172048962792,0.0011659588606536472,-0.009089674579198289,0.00029234525253553703,0.01197525480134104,0.01197525480134104,-0.036611260513834766,-0.06655041265223882,0.039414809613911174,0.12726728084064562,0.006242598848886366,-0.029130807829072458,-0.007486276767316451,0.04332747898073347,-0.01695903239720082,-0.0022210182528516666,-0.087363287399146,0.009299415393871434,-0.029130807829072458,0.00047964809360599193,-0.027665552759363665,0.008399128925373707,0.0010775801328818712,0.04716920169631506,-0.06153679908634434,0.10599659889173035,0.02193487071130385,0.13719047551435368,0.049211193604749376,0.02369537149529672,0.01197525480134104,0.0010775801328817688,-0.009443937751924977,0.09768775408408226,-0.011104058164279534,0.00831557689565824,0.01511863995537218,0.0010775801328818712,-0.008514494958949334,0.04554523535226106,-0.013364535072029836,0.027120262057302627,0.03399284108244373,-0.009089674579198289,0.009899021160462665,-0.010622978338861142,-0.0703124926665884,-0.012061638083478855,0.02024751292229484,-0.03097737511428261,-0.003978708855974997,0.004629320279921346,0.07054747148510192,-0.08087283739473214,0.023450800825642715,0.119451614017947,0.005141138082247899,0.02369537149529672,-0.048994435137951424,0.03774033025837337,0.08156696026446629,-0.027387853786443234,0.009623878615373225,0.05794918011898222,0.05056334136091383,0.12451066390032217,0.0040381540973172605,0.01197525480134104,0.0804327835431983,0.005916215942291234,0.002947524207477431,0.006565452577431741,-0.03608892614981387,-0.004854853206191315,-0.06153679908634434,0.03856766832454031,0.0017384784244091622,-0.07252977761906657,0.05090742855581383,0.0010775801328818712,-0.05593749400752882,0.16162460867317552,-0.0739833854112723,0.034054560280887596,0.02098503461775602,0.006060719544071818,-0.00902861547920231,0.10302331720538373,0.01197525480134104,0.06074003224334986,0.04931272014047307,-0.05836671000027725,0.07441482494352016,-0.028193232618644044,0.00798680548789267,-0.011554518334785335,0.13568294348604718,-0.024567540049399338,0.009299415393871434,-0.0021704171588255647,-0.002162058434930003,0.02148919361025813,0.11162975916702474,-0.06437561293603414,0.010251865106992853,-0.031814134990975025,0.09126496307904298,0.002947524207477431,0.02369537149529672,0.015469601971402,-0.029130807829072458,-0.0021704171588255647,-0.09149911902481701,-0.09710239071245287,-0.06497297847755668,0.010310215962542594,0.045670100516662565,0.00691882330667766,0.08545008769212085,-0.013087054633838312,-0.00813896012863001,0.09051880192203893,-0.025458275470302886,0.005291783865327755,0.1105494200011013,-0.031364331527846026,0.013174059214023641,-0.06153679908634434,0.11265629016513906,0.025486455933547616,0.0011684079576231455,0.01197525480134104,0.03858336103881724,-0.1027646264505208,0.004104319631730496,-0.07417443721895683,0.0020132420345553587,-0.05330950337885711,-0.05996730215885912,-0.07407045239131349,0.0018959355615132054,0.022337257101695245,0.02369537149529672,0.05137599987123318,0.019409080690705446,0.027945371300372696,0.04387556319572408,0.002947524207477431,0.002947524207477431,0.011698059555017522,0.03519614135838976,-0.029965299928749602,0.0040106826417255406,0.09295993828036436,0.08919814447524994,0.00603630603843066,-0.0015490413578204115,0.005195590278596902,-0.009089674579198289,0.02296068501053028,0.003944675147312816,0.02740731037458989,-0.007980345038184955,-0.040259181233665314,-0.014694566455777686,0.013174059214023658,-0.005958460228950068,0.0321954093251861,0.019125163308043855,0.02980389786505067,-0.0636786124738692,0.024903836280731135,-0.058669369831381234,0.12823293521326243,-0.023645033660778136,0.006541675521464952,-0.050370888647158114,0.0225820422398979,0.002947524207477431,0.0038376131961347917,0.037955392255368224,0.01197525480134104,0.14271241133912335,0.006765802926590249,-0.08605307610564211,0.09698945781685578,0.13719047551435368,-0.023232722944341033,-0.01949608671553266,0.007791901845691912,0.01806458315794621,-0.03005806505659694,-0.0047507461536076025,-0.0047507461536076025,0.010396607939326168,0.0036898838998628124,-0.003590475382579013,-0.023303112815581783,-0.05660135428431937,0.0021912789042831463,0.14611207570364534,0.06028114688991201,0.053634268512493866,0.01197525480134104,0.006988854797579344,0.01805511135671158,0.002947524207477431,0.0010775801328818712,0.009956969243204931,-0.06153679908634434,-0.014324409265563717,-0.021678681944205185,-0.01296163884761516,0.022337257101695245,0.05401301960989267,0.02833683283030656,-0.0007026665084412312,0.020669541068637984,0.07298017159295574,-0.06841743489145785,-0.015834727985304692,-0.05924921650708306,-0.04409336323057864,0.03198038730711872,-0.02525677316519749,-0.08760839449741735,-0.016998586537478128,-0.03452852303293982,0.02615590566680573,0.022337257101695245,0.036642701653312064,0.008048970361134847,-0.02885885846528172,0.010626486125609586,-0.060685729767555804,0.00929941539387143,-0.007349046527003575,-2.948710264179949e-06,0.09985251735624129,-0.017537437794821868,-0.03156653546888629,0.08453819094257915,0.11701662715280162,-0.0015490413578204106,0.03341335103998153,-0.05328570368819811,0.13522228571091727,-0.048994435137951424,0.0364615325696878,0.019349865693343415,-0.0036988648659340533,0.013329293146356348,0.01197525480134104,0.00671088244328401,0.01197525480134104,-0.0004517915563236434,-0.009089674579198282,0.01038388155306096,0.050807554423506734,0.03963857535491674,-0.003338232602440594,-0.008735803554957303,0.01197525480134104,0.0010775801328818712,-0.029818329302924468,0.012413884059010213,-0.04550324140491669,0.028203849940131094,-0.028427760156501926,0.03498024745669733,0.008199472655208304,-0.053481919448525914,-0.0008036984739489168,0.07262234858489039,0.0947223195062124,-0.0065171115335393714,-3.186987037124417e-05,0.03407609510219176,0.03567927028302305,0.10666748307766442,0.05797278821104373,0.06398178182683714,0.03626246630667177,0.00591621594229122,0.00603630603843066,0.0015789573538888078,0.0010775801328818712,-0.007752939646028113,-0.02054541760080744,0.002947524207477431,0.002947524207477431,0.002947524207477431,0.1144011290035597,0.10592016818883589,0.11726200745394472,-0.020966893453554278,-0.032034843120669225,0.02680905875988567,0.002947524207477431,0.02580124271432548,-0.010234626118149612,0.002947524207477431,0.0010775801328817705,0.051066916550612844,-0.0020975883378480317,0.010396607939326168,-0.003524259695289217,0.010739723486003739
